
\data\
ngram 1=12

\1-grams:
-0.449969	</s>
-99	<s>
-1.190332	eight
-1.190332	five
-1.190332	four
-1.190332	nine
-1.190332	one
-1.190332	seven
-1.190332	six
-1.190332	three
-1.190332	two
-1.190332	zero

\end\
