
\data\
ngram 1=12

\1-grams:
-0.3137834	</s>
-99	<s>
-1.28864	eight
-1.28864	five
-1.28864	four
-1.28864	nine
-1.28864	one
-1.28864	seven
-1.28864	six
-1.28864	three
-1.28864	two
-1.28864	zero

\end\
